zero 0.069912 0.030680 0.018114 0.009808 0.037958 0.144790 -0.077475 0.046422 -0.050004 -0.237545 0.055000 -0.087867 -0.070694 0.106972 -0.033474 -0.089013 -0.096308 0.019530 -0.043080 -0.059952 0.057815 0.005047 -0.030193 0.064468 -0.054803 -0.137584 0.018608 0.053946 0.082109 0.162774 -0.125702 -0.101264 0.080098 0.036736 0.045298 0.008407 -0.071721 -0.076607 0.057708 -0.063018 -0.109344 -0.000645 0.146972 -0.007437 0.055625 -0.007069 0.009913 -0.000558 0.067738 -0.020185 -0.064351 -0.059541 0.003715 0.120893 0.004248 0.055208 0.052320 -0.122142 0.106351 0.186893 0.038756 -0.127203 -0.003686 -0.041507 0.018769 -0.014277 0.031620 0.050873 -0.025648 -0.019322 0.044555 0.094080 -0.029144 0.131401 -0.050848 0.047311 -0.044322 0.034079 0.055072 0.045587 -0.119612 -0.002567 0.031434 -0.054535 -0.068411 -0.081916 -0.018281 0.112325 0.088609 0.015114 0.095750 -0.063318 0.081797 0.100946 -0.031375 -0.013107 0.045505 -0.175437 0.013067 -0.221327 0.045010 -0.024446 -0.020996 -0.037355 0.031833 0.016864 0.052695 0.049060 -0.118224 0.009695 0.092064 0.057427 0.013448 -0.023055 0.052255 0.025514 0.030578 0.081751 -0.054264 0.170766 -0.012293 0.020553 -0.027651 0.008712 0.004796 0.090596 -0.012528 -0.010688 0.070195 -0.044487 0.080115 0.067680 -0.096542 0.038532 -0.023715 -0.083685 0.059386 -0.083563 -0.082003 0.035228 0.123234 0.061340 -0.047056 0.125269 0.171285 -0.096297 -0.050336 0.090986 0.100944 0.111393 0.111051 0.072674 -0.084392 -0.069562 0.093856 -0.143874 0.074276 0.089403 -0.004289 0.006597 -0.051855 -0.121958 0.041140 -0.038025 -0.038937 0.020846 0.009918 0.030749 0.055421 0.057718 0.026321 0.033604 -0.036197 0.029042 0.092514 -0.077484 0.069444 0.050820 0.021020 0.024953 -0.071333 0.067027 0.108285 -0.095479 -0.015108 0.064322 -0.026527 0.009122 0.065037 -0.057992 0.072808 -0.028489 0.028026 -0.067531 0.135067 -0.031539 -0.002566 0.126961 0.054076 0.141205 0.020054 -0.014207 -0.024045 0.009848 -0.093106 0.076804 -0.064808 0.118549 0.043861 -0.149789 -0.099498 0.126328 -0.084344 -0.063736 -0.061216 -0.081444 -0.061862 0.103967 0.001979 0.178278 -0.067044 -0.063032 -0.092345 -0.209708 0.004737 -0.119108 -0.000402 0.007090 0.112559 -0.000861 0.137823 0.078791 0.000529 -0.111977 0.097761 0.090227 0.036479 0.024745 -0.056107 -0.025465 -0.088576 0.001797 0.030256 0.011922 0.000401 0.009846 -0.004814 -0.094752 -0.050202 -0.020354 -0.021422 0.017687 -0.001233 -0.025742 -0.090588 0.026842 0.072597 -0.056374 0.080103 -0.045182 0.082925 -0.003762 0.006213 -0.137253 -0.019230 -0.004044 0.035344 0.097635 0.085137 -0.009931 0.087803 0.035864 -0.020023 -0.045047 0.009986 0.002935 0.001758 -0.038751 -0.098912 -0.119348 0.064023 0.046673 -0.070644 -0.039929 -0.019407 0.003475 0.051835 -0.084620 0.029357 0.040670 -0.044003 -0.048213 -0.051300 -0.031684 0.055015 0.009001 0.066075 -0.029736 -0.117797 0.029445 -0.137233 -0.103264 -0.074157 -0.171505 0.009368 0.071612 -0.063057 -0.053629 -0.155419 0.014483 0.008812 0.171011 0.016608 -0.031780 -0.011430 -0.036850 -0.225093 -0.013103 -0.020528 0.108336 0.050712 0.110256 0.056883 0.115164 0.079647 -0.026867 -0.011360 -0.043898 -0.048399 0.067311 0.041470 -0.090028 -0.029129 -0.128089 0.005781 -0.133235 -0.042836 -0.008137 -0.002452 0.015147 0.174218 0.047771 0.118605 0.062538 0.014854 -0.012029 -0.014518 0.017034 0.119083 0.101754 -0.008594 -0.047766 0.072664 0.044659 0.072067 0.000778 0.115781 0.012270 0.065911 -0.030308 -0.059742 -0.001939 -0.039593 0.025458 -0.056340 0.103635 0.048971 -0.045336 -0.060808 0.064290 -0.158785 0.120978 0.028492 -0.068701 -0.055738 -0.067647 -0.023357 0.086716 -0.090359 0.107054 -0.030827 0.054470 0.085045 0.040888 0.016617 -0.082287 0.053348 0.003559 0.075904 0.034494 -0.095692 0.100838 0.063960 -0.008667 -0.066269 0.059329 -0.090977 0.140794 0.143321 -0.106426 
two 0.026949 0.030901 -0.060484 -0.081093 0.011852 -0.029631 -0.120319 -0.005559 0.057556 0.009205 -0.024234 0.002440 0.026724 -0.131985 0.027310 -0.047765 -0.002154 0.146533 -0.117397 0.196437 -0.160708 -0.021997 0.077677 0.056320 0.019529 0.105241 -0.108197 -0.030014 0.076577 -0.002374 0.059367 -0.063524 -0.140718 -0.062832 0.092478 -0.030351 0.084728 0.072848 -0.016831 0.022143 0.059074 0.004247 -0.002685 0.006571 0.077716 0.037562 0.118242 0.107346 -0.084715 -0.002572 0.035837 -0.010111 -0.000074 -0.028953 -0.038191 0.040322 -0.030625 0.071002 0.008887 0.017904 0.051796 0.134075 -0.126387 0.037972 -0.053503 -0.113146 0.104685 -0.036022 -0.045041 0.020595 0.013825 -0.063139 -0.012079 0.101059 -0.038552 -0.162229 -0.003069 -0.083528 -0.031189 0.032709 0.011350 0.039369 0.030058 0.101122 0.078887 -0.022710 0.012507 -0.109774 0.023970 -0.044062 -0.035196 -0.028048 0.076937 0.020534 -0.032127 0.026469 -0.053210 -0.098090 0.014703 -0.127617 0.059857 -0.030893 -0.048214 0.055042 -0.135728 0.047855 0.018059 -0.057941 0.076095 -0.005158 0.078746 -0.009487 -0.094155 0.038078 0.191446 0.104731 -0.061797 0.054561 -0.001471 -0.099876 -0.064738 0.134431 0.079158 -0.020982 -0.107544 -0.066948 0.019820 0.117853 0.016841 0.072806 -0.023043 0.030184 -0.053418 -0.081117 0.031996 0.040066 -0.123042 -0.033171 -0.029532 -0.084470 0.113499 -0.069505 0.079047 0.015985 0.016050 0.000133 0.102063 0.097296 -0.079220 -0.028544 -0.014325 -0.159042 0.091706 -0.002138 0.175210 -0.049536 0.076666 -0.146919 0.097339 0.038982 0.129573 0.041469 0.008249 0.065838 -0.030120 -0.035543 -0.076513 0.097474 0.028979 0.024566 0.073238 0.082349 -0.020297 -0.008543 -0.085035 0.027998 -0.005610 -0.026759 0.052900 -0.103005 0.177107 0.116209 -0.156149 -0.079265 0.059568 0.124264 -0.080888 0.085008 -0.000209 0.043084 0.001182 0.078221 0.131144 -0.025508 0.093422 0.068825 -0.091553 -0.026039 0.051851 0.035812 0.108822 0.040142 -0.055445 -0.013425 -0.014612 -0.100354 -0.001733 -0.045547 0.070988 -0.052561 -0.092128 -0.060727 -0.082948 -0.109622 -0.048695 0.002095 -0.013981 -0.134159 -0.000859 0.034946 0.056036 -0.114272 -0.001043 0.029952 0.085075 0.095085 0.023316 -0.057052 0.022185 0.052766 -0.100683 0.000827 0.165684 -0.039382 -0.048831 -0.000063 -0.012064 0.081109 -0.012473 0.012254 -0.153411 -0.046133 -0.000597 -0.042388 0.009908 -0.116537 -0.027331 0.143084 -0.036905 -0.150089 0.070087 -0.130864 -0.008095 0.109523 -0.149665 -0.042629 0.005391 -0.073803 0.113359 -0.004791 -0.023789 0.020383 -0.070189 -0.006336 -0.026309 0.029434 -0.182877 0.176893 -0.058632 -0.206531 0.045099 -0.073220 -0.082042 -0.047362 0.005999 -0.071310 -0.052597 -0.063006 -0.003861 0.026149 0.029305 0.104318 0.042824 0.095100 -0.107306 -0.000322 -0.062650 0.078756 -0.003422 -0.138929 -0.024402 -0.015118 0.032550 -0.073867 -0.055220 0.025441 -0.113646 0.034944 0.094666 -0.019232 -0.127714 -0.013476 -0.091870 0.049389 0.036182 0.105186 -0.058789 0.089780 -0.066147 -0.029706 -0.061532 0.007126 -0.031638 0.061109 0.009143 0.011988 -0.042322 0.002589 -0.110910 0.094413 -0.053264 -0.095635 0.109078 -0.060175 -0.032263 0.174957 0.038731 -0.014113 -0.056344 0.080697 0.056308 0.068405 0.027461 -0.061106 0.052188 -0.023394 -0.078859 0.036360 0.056744 -0.044090 0.018448 0.025093 -0.093201 0.022460 -0.002073 -0.075954 0.119930 -0.098785 -0.049681 -0.009306 -0.069150 -0.025272 0.122576 0.019013 -0.045761 0.065605 0.082899 -0.036174 -0.019127 -0.001281 0.225791 -0.010989 0.089567 0.116389 -0.109990 -0.016126 0.032881 0.019722 0.107640 -0.046252 -0.013162 0.056467 0.059335 -0.006677 0.071495 0.076991 0.079074 0.113822 0.136284 -0.099054 -0.129655 0.061156 -0.036718 -0.088436 -0.089016 -0.020637 0.036306 -0.104379 -0.022799 -0.043710 0.029679 -0.132341 0.030762 0.048742 0.016069 0.005642 -0.071862 -0.079482 -0.018893 -0.045853 
two2 0.026949 0.030901 -0.060484 -0.081093 0.011852 -0.029631 -0.120319 -0.005559 0.057556 0.009205 -0.024234 0.002440 0.026724 -0.131985 0.027310 -0.047765 -0.002154 0.146533 -0.117397 0.196437 -0.160708 -0.021997 0.077677 0.056320 0.019529 0.105241 -0.108197 -0.030014 0.076577 -0.002374 0.059367 -0.063524 -0.140718 -0.062832 0.092478 -0.030351 0.084728 0.072848 -0.016831 0.022143 0.059074 0.004247 -0.002685 0.006571 0.077716 0.037562 0.118242 0.107346 -0.084715 -0.002572 0.035837 -0.010111 -0.000074 -0.028953 -0.038191 0.040322 -0.030625 0.071002 0.008887 0.017904 0.051796 0.134075 -0.126387 0.037972 -0.053503 -0.113146 0.104685 -0.036022 -0.045041 0.020595 0.013825 -0.063139 -0.012079 0.101059 -0.038552 -0.162229 -0.003069 -0.083528 -0.031189 0.032709 0.011350 0.039369 0.030058 0.101122 0.078887 -0.022710 0.012507 -0.109774 0.023970 -0.044062 -0.035196 -0.028048 0.076937 0.020534 -0.032127 0.026469 -0.053210 -0.098090 0.014703 -0.127617 0.059857 -0.030893 -0.048214 0.055042 -0.135728 0.047855 0.018059 -0.057941 0.076095 -0.005158 0.078746 -0.009487 -0.094155 0.038078 0.191446 0.104731 -0.061797 0.054561 -0.001471 -0.099876 -0.064738 0.134431 0.079158 -0.020982 -0.107544 -0.066948 0.019820 0.117853 0.016841 0.072806 -0.023043 0.030184 -0.053418 -0.081117 0.031996 0.040066 -0.123042 -0.033171 -0.029532 -0.084470 0.113499 -0.069505 0.079047 0.015985 0.016050 0.000133 0.102063 0.097296 -0.079220 -0.028544 -0.014325 -0.159042 0.091706 -0.002138 0.175210 -0.049536 0.076666 -0.146919 0.097339 0.038982 0.129573 0.041469 0.008249 0.065838 -0.030120 -0.035543 -0.076513 0.097474 0.028979 0.024566 0.073238 0.082349 -0.020297 -0.008543 -0.085035 0.027998 -0.005610 -0.026759 0.052900 -0.103005 0.177107 0.116209 -0.156149 -0.079265 0.059568 0.124264 -0.080888 0.085008 -0.000209 0.043084 0.001182 0.078221 0.131144 -0.025508 0.093422 0.068825 -0.091553 -0.026039 0.051851 0.035812 0.108822 0.040142 -0.055445 -0.013425 -0.014612 -0.100354 -0.001733 -0.045547 0.070988 -0.052561 -0.092128 -0.060727 -0.082948 -0.109622 -0.048695 0.002095 -0.013981 -0.134159 -0.000859 0.034946 0.056036 -0.114272 -0.001043 0.029952 0.085075 0.095085 0.023316 -0.057052 0.022185 0.052766 -0.100683 0.000827 0.165684 -0.039382 -0.048831 -0.000063 -0.012064 0.081109 -0.012473 0.012254 -0.153411 -0.046133 -0.000597 -0.042388 0.009908 -0.116537 -0.027331 0.143084 -0.036905 -0.150089 0.070087 -0.130864 -0.008095 0.109523 -0.149665 -0.042629 0.005391 -0.073803 0.113359 -0.004791 -0.023789 0.020383 -0.070189 -0.006336 -0.026309 0.029434 -0.182877 0.176893 -0.058632 -0.206531 0.045099 -0.073220 -0.082042 -0.047362 0.005999 -0.071310 -0.052597 -0.063006 -0.003861 0.026149 0.029305 0.104318 0.042824 0.095100 -0.107306 -0.000322 -0.062650 0.078756 -0.003422 -0.138929 -0.024402 -0.015118 0.032550 -0.073867 -0.055220 0.025441 -0.113646 0.034944 0.094666 -0.019232 -0.127714 -0.013476 -0.091870 0.049389 0.036182 0.105186 -0.058789 0.089780 -0.066147 -0.029706 -0.061532 0.007126 -0.031638 0.061109 0.009143 0.011988 -0.042322 0.002589 -0.110910 0.094413 -0.053264 -0.095635 0.109078 -0.060175 -0.032263 0.174957 0.038731 -0.014113 -0.056344 0.080697 0.056308 0.068405 0.027461 -0.061106 0.052188 -0.023394 -0.078859 0.036360 0.056744 -0.044090 0.018448 0.025093 -0.093201 0.022460 -0.002073 -0.075954 0.119930 -0.098785 -0.049681 -0.009306 -0.069150 -0.025272 0.122576 0.019013 -0.045761 0.065605 0.082899 -0.036174 -0.019127 -0.001281 0.225791 -0.010989 0.089567 0.116389 -0.109990 -0.016126 0.032881 0.019722 0.107640 -0.046252 -0.013162 0.056467 0.059335 -0.006677 0.071495 0.076991 0.079074 0.113822 0.136284 -0.099054 -0.129655 0.061156 -0.036718 -0.088436 -0.089016 -0.020637 0.036306 -0.104379 -0.022799 -0.043710 0.029679 -0.132341 0.030762 0.048742 0.016069 0.005642 -0.071862 -0.079482 -0.018893 -0.045853 
two3 0.026949 0.030901 -0.060484 -0.081093 0.011852 -0.029631 -0.120319 -0.005559 0.057556 0.009205 -0.024234 0.002440 0.026724 -0.131985 0.027310 -0.047765 -0.002154 0.146533 -0.117397 0.196437 -0.160708 -0.021997 0.077677 0.056320 0.019529 0.105241 -0.108197 -0.030014 0.076577 -0.002374 0.059367 -0.063524 -0.140718 -0.062832 0.092478 -0.030351 0.084728 0.072848 -0.016831 0.022143 0.059074 0.004247 -0.002685 0.006571 0.077716 0.037562 0.118242 0.107346 -0.084715 -0.002572 0.035837 -0.010111 -0.000074 -0.028953 -0.038191 0.040322 -0.030625 0.071002 0.008887 0.017904 0.051796 0.134075 -0.126387 0.037972 -0.053503 -0.113146 0.104685 -0.036022 -0.045041 0.020595 0.013825 -0.063139 -0.012079 0.101059 -0.038552 -0.162229 -0.003069 -0.083528 -0.031189 0.032709 0.011350 0.039369 0.030058 0.101122 0.078887 -0.022710 0.012507 -0.109774 0.023970 -0.044062 -0.035196 -0.028048 0.076937 0.020534 -0.032127 0.026469 -0.053210 -0.098090 0.014703 -0.127617 0.059857 -0.030893 -0.048214 0.055042 -0.135728 0.047855 0.018059 -0.057941 0.076095 -0.005158 0.078746 -0.009487 -0.094155 0.038078 0.191446 0.104731 -0.061797 0.054561 -0.001471 -0.099876 -0.064738 0.134431 0.079158 -0.020982 -0.107544 -0.066948 0.019820 0.117853 0.016841 0.072806 -0.023043 0.030184 -0.053418 -0.081117 0.031996 0.040066 -0.123042 -0.033171 -0.029532 -0.084470 0.113499 -0.069505 0.079047 0.015985 0.016050 0.000133 0.102063 0.097296 -0.079220 -0.028544 -0.014325 -0.159042 0.091706 -0.002138 0.175210 -0.049536 0.076666 -0.146919 0.097339 0.038982 0.129573 0.041469 0.008249 0.065838 -0.030120 -0.035543 -0.076513 0.097474 0.028979 0.024566 0.073238 0.082349 -0.020297 -0.008543 -0.085035 0.027998 -0.005610 -0.026759 0.052900 -0.103005 0.177107 0.116209 -0.156149 -0.079265 0.059568 0.124264 -0.080888 0.085008 -0.000209 0.043084 0.001182 0.078221 0.131144 -0.025508 0.093422 0.068825 -0.091553 -0.026039 0.051851 0.035812 0.108822 0.040142 -0.055445 -0.013425 -0.014612 -0.100354 -0.001733 -0.045547 0.070988 -0.052561 -0.092128 -0.060727 -0.082948 -0.109622 -0.048695 0.002095 -0.013981 -0.134159 -0.000859 0.034946 0.056036 -0.114272 -0.001043 0.029952 0.085075 0.095085 0.023316 -0.057052 0.022185 0.052766 -0.100683 0.000827 0.165684 -0.039382 -0.048831 -0.000063 -0.012064 0.081109 -0.012473 0.012254 -0.153411 -0.046133 -0.000597 -0.042388 0.009908 -0.116537 -0.027331 0.143084 -0.036905 -0.150089 0.070087 -0.130864 -0.008095 0.109523 -0.149665 -0.042629 0.005391 -0.073803 0.113359 -0.004791 -0.023789 0.020383 -0.070189 -0.006336 -0.026309 0.029434 -0.182877 0.176893 -0.058632 -0.206531 0.045099 -0.073220 -0.082042 -0.047362 0.005999 -0.071310 -0.052597 -0.063006 -0.003861 0.026149 0.029305 0.104318 0.042824 0.095100 -0.107306 -0.000322 -0.062650 0.078756 -0.003422 -0.138929 -0.024402 -0.015118 0.032550 -0.073867 -0.055220 0.025441 -0.113646 0.034944 0.094666 -0.019232 -0.127714 -0.013476 -0.091870 0.049389 0.036182 0.105186 -0.058789 0.089780 -0.066147 -0.029706 -0.061532 0.007126 -0.031638 0.061109 0.009143 0.011988 -0.042322 0.002589 -0.110910 0.094413 -0.053264 -0.095635 0.109078 -0.060175 -0.032263 0.174957 0.038731 -0.014113 -0.056344 0.080697 0.056308 0.068405 0.027461 -0.061106 0.052188 -0.023394 -0.078859 0.036360 0.056744 -0.044090 0.018448 0.025093 -0.093201 0.022460 -0.002073 -0.075954 0.119930 -0.098785 -0.049681 -0.009306 -0.069150 -0.025272 0.122576 0.019013 -0.045761 0.065605 0.082899 -0.036174 -0.019127 -0.001281 0.225791 -0.010989 0.089567 0.116389 -0.109990 -0.016126 0.032881 0.019722 0.107640 -0.046252 -0.013162 0.056467 0.059335 -0.006677 0.071495 0.076991 0.079074 0.113822 0.136284 -0.099054 -0.129655 0.061156 -0.036718 -0.088436 -0.089016 -0.020637 0.036306 -0.104379 -0.022799 -0.043710 0.029679 -0.132341 0.030762 0.048742 0.016069 0.005642 -0.071862 -0.079482 -0.018893 -0.045853 
two4 0.026949 0.030901 -0.060484 -0.081093 0.011852 -0.029631 -0.120319 -0.005559 0.057556 0.009205 -0.024234 0.002440 0.026724 -0.131985 0.027310 -0.047765 -0.002154 0.146533 -0.117397 0.196437 -0.160708 -0.021997 0.077677 0.056320 0.019529 0.105241 -0.108197 -0.030014 0.076577 -0.002374 0.059367 -0.063524 -0.140718 -0.062832 0.092478 -0.030351 0.084728 0.072848 -0.016831 0.022143 0.059074 0.004247 -0.002685 0.006571 0.077716 0.037562 0.118242 0.107346 -0.084715 -0.002572 0.035837 -0.010111 -0.000074 -0.028953 -0.038191 0.040322 -0.030625 0.071002 0.008887 0.017904 0.051796 0.134075 -0.126387 0.037972 -0.053503 -0.113146 0.104685 -0.036022 -0.045041 0.020595 0.013825 -0.063139 -0.012079 0.101059 -0.038552 -0.162229 -0.003069 -0.083528 -0.031189 0.032709 0.011350 0.039369 0.030058 0.101122 0.078887 -0.022710 0.012507 -0.109774 0.023970 -0.044062 -0.035196 -0.028048 0.076937 0.020534 -0.032127 0.026469 -0.053210 -0.098090 0.014703 -0.127617 0.059857 -0.030893 -0.048214 0.055042 -0.135728 0.047855 0.018059 -0.057941 0.076095 -0.005158 0.078746 -0.009487 -0.094155 0.038078 0.191446 0.104731 -0.061797 0.054561 -0.001471 -0.099876 -0.064738 0.134431 0.079158 -0.020982 -0.107544 -0.066948 0.019820 0.117853 0.016841 0.072806 -0.023043 0.030184 -0.053418 -0.081117 0.031996 0.040066 -0.123042 -0.033171 -0.029532 -0.084470 0.113499 -0.069505 0.079047 0.015985 0.016050 0.000133 0.102063 0.097296 -0.079220 -0.028544 -0.014325 -0.159042 0.091706 -0.002138 0.175210 -0.049536 0.076666 -0.146919 0.097339 0.038982 0.129573 0.041469 0.008249 0.065838 -0.030120 -0.035543 -0.076513 0.097474 0.028979 0.024566 0.073238 0.082349 -0.020297 -0.008543 -0.085035 0.027998 -0.005610 -0.026759 0.052900 -0.103005 0.177107 0.116209 -0.156149 -0.079265 0.059568 0.124264 -0.080888 0.085008 -0.000209 0.043084 0.001182 0.078221 0.131144 -0.025508 0.093422 0.068825 -0.091553 -0.026039 0.051851 0.035812 0.108822 0.040142 -0.055445 -0.013425 -0.014612 -0.100354 -0.001733 -0.045547 0.070988 -0.052561 -0.092128 -0.060727 -0.082948 -0.109622 -0.048695 0.002095 -0.013981 -0.134159 -0.000859 0.034946 0.056036 -0.114272 -0.001043 0.029952 0.085075 0.095085 0.023316 -0.057052 0.022185 0.052766 -0.100683 0.000827 0.165684 -0.039382 -0.048831 -0.000063 -0.012064 0.081109 -0.012473 0.012254 -0.153411 -0.046133 -0.000597 -0.042388 0.009908 -0.116537 -0.027331 0.143084 -0.036905 -0.150089 0.070087 -0.130864 -0.008095 0.109523 -0.149665 -0.042629 0.005391 -0.073803 0.113359 -0.004791 -0.023789 0.020383 -0.070189 -0.006336 -0.026309 0.029434 -0.182877 0.176893 -0.058632 -0.206531 0.045099 -0.073220 -0.082042 -0.047362 0.005999 -0.071310 -0.052597 -0.063006 -0.003861 0.026149 0.029305 0.104318 0.042824 0.095100 -0.107306 -0.000322 -0.062650 0.078756 -0.003422 -0.138929 -0.024402 -0.015118 0.032550 -0.073867 -0.055220 0.025441 -0.113646 0.034944 0.094666 -0.019232 -0.127714 -0.013476 -0.091870 0.049389 0.036182 0.105186 -0.058789 0.089780 -0.066147 -0.029706 -0.061532 0.007126 -0.031638 0.061109 0.009143 0.011988 -0.042322 0.002589 -0.110910 0.094413 -0.053264 -0.095635 0.109078 -0.060175 -0.032263 0.174957 0.038731 -0.014113 -0.056344 0.080697 0.056308 0.068405 0.027461 -0.061106 0.052188 -0.023394 -0.078859 0.036360 0.056744 -0.044090 0.018448 0.025093 -0.093201 0.022460 -0.002073 -0.075954 0.119930 -0.098785 -0.049681 -0.009306 -0.069150 -0.025272 0.122576 0.019013 -0.045761 0.065605 0.082899 -0.036174 -0.019127 -0.001281 0.225791 -0.010989 0.089567 0.116389 -0.109990 -0.016126 0.032881 0.019722 0.107640 -0.046252 -0.013162 0.056467 0.059335 -0.006677 0.071495 0.076991 0.079074 0.113822 0.136284 -0.099054 -0.129655 0.061156 -0.036718 -0.088436 -0.089016 -0.020637 0.036306 -0.104379 -0.022799 -0.043710 0.029679 -0.132341 0.030762 0.048742 0.016069 0.005642 -0.071862 -0.079482 -0.018893 -0.045853 
two5 0.026949 0.030901 -0.060484 -0.081093 0.011852 -0.029631 -0.120319 -0.005559 0.057556 0.009205 -0.024234 0.002440 0.026724 -0.131985 0.027310 -0.047765 -0.002154 0.146533 -0.117397 0.196437 -0.160708 -0.021997 0.077677 0.056320 0.019529 0.105241 -0.108197 -0.030014 0.076577 -0.002374 0.059367 -0.063524 -0.140718 -0.062832 0.092478 -0.030351 0.084728 0.072848 -0.016831 0.022143 0.059074 0.004247 -0.002685 0.006571 0.077716 0.037562 0.118242 0.107346 -0.084715 -0.002572 0.035837 -0.010111 -0.000074 -0.028953 -0.038191 0.040322 -0.030625 0.071002 0.008887 0.017904 0.051796 0.134075 -0.126387 0.037972 -0.053503 -0.113146 0.104685 -0.036022 -0.045041 0.020595 0.013825 -0.063139 -0.012079 0.101059 -0.038552 -0.162229 -0.003069 -0.083528 -0.031189 0.032709 0.011350 0.039369 0.030058 0.101122 0.078887 -0.022710 0.012507 -0.109774 0.023970 -0.044062 -0.035196 -0.028048 0.076937 0.020534 -0.032127 0.026469 -0.053210 -0.098090 0.014703 -0.127617 0.059857 -0.030893 -0.048214 0.055042 -0.135728 0.047855 0.018059 -0.057941 0.076095 -0.005158 0.078746 -0.009487 -0.094155 0.038078 0.191446 0.104731 -0.061797 0.054561 -0.001471 -0.099876 -0.064738 0.134431 0.079158 -0.020982 -0.107544 -0.066948 0.019820 0.117853 0.016841 0.072806 -0.023043 0.030184 -0.053418 -0.081117 0.031996 0.040066 -0.123042 -0.033171 -0.029532 -0.084470 0.113499 -0.069505 0.079047 0.015985 0.016050 0.000133 0.102063 0.097296 -0.079220 -0.028544 -0.014325 -0.159042 0.091706 -0.002138 0.175210 -0.049536 0.076666 -0.146919 0.097339 0.038982 0.129573 0.041469 0.008249 0.065838 -0.030120 -0.035543 -0.076513 0.097474 0.028979 0.024566 0.073238 0.082349 -0.020297 -0.008543 -0.085035 0.027998 -0.005610 -0.026759 0.052900 -0.103005 0.177107 0.116209 -0.156149 -0.079265 0.059568 0.124264 -0.080888 0.085008 -0.000209 0.043084 0.001182 0.078221 0.131144 -0.025508 0.093422 0.068825 -0.091553 -0.026039 0.051851 0.035812 0.108822 0.040142 -0.055445 -0.013425 -0.014612 -0.100354 -0.001733 -0.045547 0.070988 -0.052561 -0.092128 -0.060727 -0.082948 -0.109622 -0.048695 0.002095 -0.013981 -0.134159 -0.000859 0.034946 0.056036 -0.114272 -0.001043 0.029952 0.085075 0.095085 0.023316 -0.057052 0.022185 0.052766 -0.100683 0.000827 0.165684 -0.039382 -0.048831 -0.000063 -0.012064 0.081109 -0.012473 0.012254 -0.153411 -0.046133 -0.000597 -0.042388 0.009908 -0.116537 -0.027331 0.143084 -0.036905 -0.150089 0.070087 -0.130864 -0.008095 0.109523 -0.149665 -0.042629 0.005391 -0.073803 0.113359 -0.004791 -0.023789 0.020383 -0.070189 -0.006336 -0.026309 0.029434 -0.182877 0.176893 -0.058632 -0.206531 0.045099 -0.073220 -0.082042 -0.047362 0.005999 -0.071310 -0.052597 -0.063006 -0.003861 0.026149 0.029305 0.104318 0.042824 0.095100 -0.107306 -0.000322 -0.062650 0.078756 -0.003422 -0.138929 -0.024402 -0.015118 0.032550 -0.073867 -0.055220 0.025441 -0.113646 0.034944 0.094666 -0.019232 -0.127714 -0.013476 -0.091870 0.049389 0.036182 0.105186 -0.058789 0.089780 -0.066147 -0.029706 -0.061532 0.007126 -0.031638 0.061109 0.009143 0.011988 -0.042322 0.002589 -0.110910 0.094413 -0.053264 -0.095635 0.109078 -0.060175 -0.032263 0.174957 0.038731 -0.014113 -0.056344 0.080697 0.056308 0.068405 0.027461 -0.061106 0.052188 -0.023394 -0.078859 0.036360 0.056744 -0.044090 0.018448 0.025093 -0.093201 0.022460 -0.002073 -0.075954 0.119930 -0.098785 -0.049681 -0.009306 -0.069150 -0.025272 0.122576 0.019013 -0.045761 0.065605 0.082899 -0.036174 -0.019127 -0.001281 0.225791 -0.010989 0.089567 0.116389 -0.109990 -0.016126 0.032881 0.019722 0.107640 -0.046252 -0.013162 0.056467 0.059335 -0.006677 0.071495 0.076991 0.079074 0.113822 0.136284 -0.099054 -0.129655 0.061156 -0.036718 -0.088436 -0.089016 -0.020637 0.036306 -0.104379 -0.022799 -0.043710 0.029679 -0.132341 0.030762 0.048742 0.016069 0.005642 -0.071862 -0.079482 -0.018893 -0.045853 
two6 0.026949 0.030901 -0.060484 -0.081093 0.011852 -0.029631 -0.120319 -0.005559 0.057556 0.009205 -0.024234 0.002440 0.026724 -0.131985 0.027310 -0.047765 -0.002154 0.146533 -0.117397 0.196437 -0.160708 -0.021997 0.077677 0.056320 0.019529 0.105241 -0.108197 -0.030014 0.076577 -0.002374 0.059367 -0.063524 -0.140718 -0.062832 0.092478 -0.030351 0.084728 0.072848 -0.016831 0.022143 0.059074 0.004247 -0.002685 0.006571 0.077716 0.037562 0.118242 0.107346 -0.084715 -0.002572 0.035837 -0.010111 -0.000074 -0.028953 -0.038191 0.040322 -0.030625 0.071002 0.008887 0.017904 0.051796 0.134075 -0.126387 0.037972 -0.053503 -0.113146 0.104685 -0.036022 -0.045041 0.020595 0.013825 -0.063139 -0.012079 0.101059 -0.038552 -0.162229 -0.003069 -0.083528 -0.031189 0.032709 0.011350 0.039369 0.030058 0.101122 0.078887 -0.022710 0.012507 -0.109774 0.023970 -0.044062 -0.035196 -0.028048 0.076937 0.020534 -0.032127 0.026469 -0.053210 -0.098090 0.014703 -0.127617 0.059857 -0.030893 -0.048214 0.055042 -0.135728 0.047855 0.018059 -0.057941 0.076095 -0.005158 0.078746 -0.009487 -0.094155 0.038078 0.191446 0.104731 -0.061797 0.054561 -0.001471 -0.099876 -0.064738 0.134431 0.079158 -0.020982 -0.107544 -0.066948 0.019820 0.117853 0.016841 0.072806 -0.023043 0.030184 -0.053418 -0.081117 0.031996 0.040066 -0.123042 -0.033171 -0.029532 -0.084470 0.113499 -0.069505 0.079047 0.015985 0.016050 0.000133 0.102063 0.097296 -0.079220 -0.028544 -0.014325 -0.159042 0.091706 -0.002138 0.175210 -0.049536 0.076666 -0.146919 0.097339 0.038982 0.129573 0.041469 0.008249 0.065838 -0.030120 -0.035543 -0.076513 0.097474 0.028979 0.024566 0.073238 0.082349 -0.020297 -0.008543 -0.085035 0.027998 -0.005610 -0.026759 0.052900 -0.103005 0.177107 0.116209 -0.156149 -0.079265 0.059568 0.124264 -0.080888 0.085008 -0.000209 0.043084 0.001182 0.078221 0.131144 -0.025508 0.093422 0.068825 -0.091553 -0.026039 0.051851 0.035812 0.108822 0.040142 -0.055445 -0.013425 -0.014612 -0.100354 -0.001733 -0.045547 0.070988 -0.052561 -0.092128 -0.060727 -0.082948 -0.109622 -0.048695 0.002095 -0.013981 -0.134159 -0.000859 0.034946 0.056036 -0.114272 -0.001043 0.029952 0.085075 0.095085 0.023316 -0.057052 0.022185 0.052766 -0.100683 0.000827 0.165684 -0.039382 -0.048831 -0.000063 -0.012064 0.081109 -0.012473 0.012254 -0.153411 -0.046133 -0.000597 -0.042388 0.009908 -0.116537 -0.027331 0.143084 -0.036905 -0.150089 0.070087 -0.130864 -0.008095 0.109523 -0.149665 -0.042629 0.005391 -0.073803 0.113359 -0.004791 -0.023789 0.020383 -0.070189 -0.006336 -0.026309 0.029434 -0.182877 0.176893 -0.058632 -0.206531 0.045099 -0.073220 -0.082042 -0.047362 0.005999 -0.071310 -0.052597 -0.063006 -0.003861 0.026149 0.029305 0.104318 0.042824 0.095100 -0.107306 -0.000322 -0.062650 0.078756 -0.003422 -0.138929 -0.024402 -0.015118 0.032550 -0.073867 -0.055220 0.025441 -0.113646 0.034944 0.094666 -0.019232 -0.127714 -0.013476 -0.091870 0.049389 0.036182 0.105186 -0.058789 0.089780 -0.066147 -0.029706 -0.061532 0.007126 -0.031638 0.061109 0.009143 0.011988 -0.042322 0.002589 -0.110910 0.094413 -0.053264 -0.095635 0.109078 -0.060175 -0.032263 0.174957 0.038731 -0.014113 -0.056344 0.080697 0.056308 0.068405 0.027461 -0.061106 0.052188 -0.023394 -0.078859 0.036360 0.056744 -0.044090 0.018448 0.025093 -0.093201 0.022460 -0.002073 -0.075954 0.119930 -0.098785 -0.049681 -0.009306 -0.069150 -0.025272 0.122576 0.019013 -0.045761 0.065605 0.082899 -0.036174 -0.019127 -0.001281 0.225791 -0.010989 0.089567 0.116389 -0.109990 -0.016126 0.032881 0.019722 0.107640 -0.046252 -0.013162 0.056467 0.059335 -0.006677 0.071495 0.076991 0.079074 0.113822 0.136284 -0.099054 -0.129655 0.061156 -0.036718 -0.088436 -0.089016 -0.020637 0.036306 -0.104379 -0.022799 -0.043710 0.029679 -0.132341 0.030762 0.048742 0.016069 0.005642 -0.071862 -0.079482 -0.018893 -0.045853 
two7 0.026949 0.030901 -0.060484 -0.081093 0.011852 -0.029631 -0.120319 -0.005559 0.057556 0.009205 -0.024234 0.002440 0.026724 -0.131985 0.027310 -0.047765 -0.002154 0.146533 -0.117397 0.196437 -0.160708 -0.021997 0.077677 0.056320 0.019529 0.105241 -0.108197 -0.030014 0.076577 -0.002374 0.059367 -0.063524 -0.140718 -0.062832 0.092478 -0.030351 0.084728 0.072848 -0.016831 0.022143 0.059074 0.004247 -0.002685 0.006571 0.077716 0.037562 0.118242 0.107346 -0.084715 -0.002572 0.035837 -0.010111 -0.000074 -0.028953 -0.038191 0.040322 -0.030625 0.071002 0.008887 0.017904 0.051796 0.134075 -0.126387 0.037972 -0.053503 -0.113146 0.104685 -0.036022 -0.045041 0.020595 0.013825 -0.063139 -0.012079 0.101059 -0.038552 -0.162229 -0.003069 -0.083528 -0.031189 0.032709 0.011350 0.039369 0.030058 0.101122 0.078887 -0.022710 0.012507 -0.109774 0.023970 -0.044062 -0.035196 -0.028048 0.076937 0.020534 -0.032127 0.026469 -0.053210 -0.098090 0.014703 -0.127617 0.059857 -0.030893 -0.048214 0.055042 -0.135728 0.047855 0.018059 -0.057941 0.076095 -0.005158 0.078746 -0.009487 -0.094155 0.038078 0.191446 0.104731 -0.061797 0.054561 -0.001471 -0.099876 -0.064738 0.134431 0.079158 -0.020982 -0.107544 -0.066948 0.019820 0.117853 0.016841 0.072806 -0.023043 0.030184 -0.053418 -0.081117 0.031996 0.040066 -0.123042 -0.033171 -0.029532 -0.084470 0.113499 -0.069505 0.079047 0.015985 0.016050 0.000133 0.102063 0.097296 -0.079220 -0.028544 -0.014325 -0.159042 0.091706 -0.002138 0.175210 -0.049536 0.076666 -0.146919 0.097339 0.038982 0.129573 0.041469 0.008249 0.065838 -0.030120 -0.035543 -0.076513 0.097474 0.028979 0.024566 0.073238 0.082349 -0.020297 -0.008543 -0.085035 0.027998 -0.005610 -0.026759 0.052900 -0.103005 0.177107 0.116209 -0.156149 -0.079265 0.059568 0.124264 -0.080888 0.085008 -0.000209 0.043084 0.001182 0.078221 0.131144 -0.025508 0.093422 0.068825 -0.091553 -0.026039 0.051851 0.035812 0.108822 0.040142 -0.055445 -0.013425 -0.014612 -0.100354 -0.001733 -0.045547 0.070988 -0.052561 -0.092128 -0.060727 -0.082948 -0.109622 -0.048695 0.002095 -0.013981 -0.134159 -0.000859 0.034946 0.056036 -0.114272 -0.001043 0.029952 0.085075 0.095085 0.023316 -0.057052 0.022185 0.052766 -0.100683 0.000827 0.165684 -0.039382 -0.048831 -0.000063 -0.012064 0.081109 -0.012473 0.012254 -0.153411 -0.046133 -0.000597 -0.042388 0.009908 -0.116537 -0.027331 0.143084 -0.036905 -0.150089 0.070087 -0.130864 -0.008095 0.109523 -0.149665 -0.042629 0.005391 -0.073803 0.113359 -0.004791 -0.023789 0.020383 -0.070189 -0.006336 -0.026309 0.029434 -0.182877 0.176893 -0.058632 -0.206531 0.045099 -0.073220 -0.082042 -0.047362 0.005999 -0.071310 -0.052597 -0.063006 -0.003861 0.026149 0.029305 0.104318 0.042824 0.095100 -0.107306 -0.000322 -0.062650 0.078756 -0.003422 -0.138929 -0.024402 -0.015118 0.032550 -0.073867 -0.055220 0.025441 -0.113646 0.034944 0.094666 -0.019232 -0.127714 -0.013476 -0.091870 0.049389 0.036182 0.105186 -0.058789 0.089780 -0.066147 -0.029706 -0.061532 0.007126 -0.031638 0.061109 0.009143 0.011988 -0.042322 0.002589 -0.110910 0.094413 -0.053264 -0.095635 0.109078 -0.060175 -0.032263 0.174957 0.038731 -0.014113 -0.056344 0.080697 0.056308 0.068405 0.027461 -0.061106 0.052188 -0.023394 -0.078859 0.036360 0.056744 -0.044090 0.018448 0.025093 -0.093201 0.022460 -0.002073 -0.075954 0.119930 -0.098785 -0.049681 -0.009306 -0.069150 -0.025272 0.122576 0.019013 -0.045761 0.065605 0.082899 -0.036174 -0.019127 -0.001281 0.225791 -0.010989 0.089567 0.116389 -0.109990 -0.016126 0.032881 0.019722 0.107640 -0.046252 -0.013162 0.056467 0.059335 -0.006677 0.071495 0.076991 0.079074 0.113822 0.136284 -0.099054 -0.129655 0.061156 -0.036718 -0.088436 -0.089016 -0.020637 0.036306 -0.104379 -0.022799 -0.043710 0.029679 -0.132341 0.030762 0.048742 0.016069 0.005642 -0.071862 -0.079482 -0.018893 -0.045853 
two8 0.026949 0.030901 -0.060484 -0.081093 0.011852 -0.029631 -0.120319 -0.005559 0.057556 0.009205 -0.024234 0.002440 0.026724 -0.131985 0.027310 -0.047765 -0.002154 0.146533 -0.117397 0.196437 -0.160708 -0.021997 0.077677 0.056320 0.019529 0.105241 -0.108197 -0.030014 0.076577 -0.002374 0.059367 -0.063524 -0.140718 -0.062832 0.092478 -0.030351 0.084728 0.072848 -0.016831 0.022143 0.059074 0.004247 -0.002685 0.006571 0.077716 0.037562 0.118242 0.107346 -0.084715 -0.002572 0.035837 -0.010111 -0.000074 -0.028953 -0.038191 0.040322 -0.030625 0.071002 0.008887 0.017904 0.051796 0.134075 -0.126387 0.037972 -0.053503 -0.113146 0.104685 -0.036022 -0.045041 0.020595 0.013825 -0.063139 -0.012079 0.101059 -0.038552 -0.162229 -0.003069 -0.083528 -0.031189 0.032709 0.011350 0.039369 0.030058 0.101122 0.078887 -0.022710 0.012507 -0.109774 0.023970 -0.044062 -0.035196 -0.028048 0.076937 0.020534 -0.032127 0.026469 -0.053210 -0.098090 0.014703 -0.127617 0.059857 -0.030893 -0.048214 0.055042 -0.135728 0.047855 0.018059 -0.057941 0.076095 -0.005158 0.078746 -0.009487 -0.094155 0.038078 0.191446 0.104731 -0.061797 0.054561 -0.001471 -0.099876 -0.064738 0.134431 0.079158 -0.020982 -0.107544 -0.066948 0.019820 0.117853 0.016841 0.072806 -0.023043 0.030184 -0.053418 -0.081117 0.031996 0.040066 -0.123042 -0.033171 -0.029532 -0.084470 0.113499 -0.069505 0.079047 0.015985 0.016050 0.000133 0.102063 0.097296 -0.079220 -0.028544 -0.014325 -0.159042 0.091706 -0.002138 0.175210 -0.049536 0.076666 -0.146919 0.097339 0.038982 0.129573 0.041469 0.008249 0.065838 -0.030120 -0.035543 -0.076513 0.097474 0.028979 0.024566 0.073238 0.082349 -0.020297 -0.008543 -0.085035 0.027998 -0.005610 -0.026759 0.052900 -0.103005 0.177107 0.116209 -0.156149 -0.079265 0.059568 0.124264 -0.080888 0.085008 -0.000209 0.043084 0.001182 0.078221 0.131144 -0.025508 0.093422 0.068825 -0.091553 -0.026039 0.051851 0.035812 0.108822 0.040142 -0.055445 -0.013425 -0.014612 -0.100354 -0.001733 -0.045547 0.070988 -0.052561 -0.092128 -0.060727 -0.082948 -0.109622 -0.048695 0.002095 -0.013981 -0.134159 -0.000859 0.034946 0.056036 -0.114272 -0.001043 0.029952 0.085075 0.095085 0.023316 -0.057052 0.022185 0.052766 -0.100683 0.000827 0.165684 -0.039382 -0.048831 -0.000063 -0.012064 0.081109 -0.012473 0.012254 -0.153411 -0.046133 -0.000597 -0.042388 0.009908 -0.116537 -0.027331 0.143084 -0.036905 -0.150089 0.070087 -0.130864 -0.008095 0.109523 -0.149665 -0.042629 0.005391 -0.073803 0.113359 -0.004791 -0.023789 0.020383 -0.070189 -0.006336 -0.026309 0.029434 -0.182877 0.176893 -0.058632 -0.206531 0.045099 -0.073220 -0.082042 -0.047362 0.005999 -0.071310 -0.052597 -0.063006 -0.003861 0.026149 0.029305 0.104318 0.042824 0.095100 -0.107306 -0.000322 -0.062650 0.078756 -0.003422 -0.138929 -0.024402 -0.015118 0.032550 -0.073867 -0.055220 0.025441 -0.113646 0.034944 0.094666 -0.019232 -0.127714 -0.013476 -0.091870 0.049389 0.036182 0.105186 -0.058789 0.089780 -0.066147 -0.029706 -0.061532 0.007126 -0.031638 0.061109 0.009143 0.011988 -0.042322 0.002589 -0.110910 0.094413 -0.053264 -0.095635 0.109078 -0.060175 -0.032263 0.174957 0.038731 -0.014113 -0.056344 0.080697 0.056308 0.068405 0.027461 -0.061106 0.052188 -0.023394 -0.078859 0.036360 0.056744 -0.044090 0.018448 0.025093 -0.093201 0.022460 -0.002073 -0.075954 0.119930 -0.098785 -0.049681 -0.009306 -0.069150 -0.025272 0.122576 0.019013 -0.045761 0.065605 0.082899 -0.036174 -0.019127 -0.001281 0.225791 -0.010989 0.089567 0.116389 -0.109990 -0.016126 0.032881 0.019722 0.107640 -0.046252 -0.013162 0.056467 0.059335 -0.006677 0.071495 0.076991 0.079074 0.113822 0.136284 -0.099054 -0.129655 0.061156 -0.036718 -0.088436 -0.089016 -0.020637 0.036306 -0.104379 -0.022799 -0.043710 0.029679 -0.132341 0.030762 0.048742 0.016069 0.005642 -0.071862 -0.079482 -0.018893 -0.045853 
two9 0.026949 0.030901 -0.060484 -0.081093 0.011852 -0.029631 -0.120319 -0.005559 0.057556 0.009205 -0.024234 0.002440 0.026724 -0.131985 0.027310 -0.047765 -0.002154 0.146533 -0.117397 0.196437 -0.160708 -0.021997 0.077677 0.056320 0.019529 0.105241 -0.108197 -0.030014 0.076577 -0.002374 0.059367 -0.063524 -0.140718 -0.062832 0.092478 -0.030351 0.084728 0.072848 -0.016831 0.022143 0.059074 0.004247 -0.002685 0.006571 0.077716 0.037562 0.118242 0.107346 -0.084715 -0.002572 0.035837 -0.010111 -0.000074 -0.028953 -0.038191 0.040322 -0.030625 0.071002 0.008887 0.017904 0.051796 0.134075 -0.126387 0.037972 -0.053503 -0.113146 0.104685 -0.036022 -0.045041 0.020595 0.013825 -0.063139 -0.012079 0.101059 -0.038552 -0.162229 -0.003069 -0.083528 -0.031189 0.032709 0.011350 0.039369 0.030058 0.101122 0.078887 -0.022710 0.012507 -0.109774 0.023970 -0.044062 -0.035196 -0.028048 0.076937 0.020534 -0.032127 0.026469 -0.053210 -0.098090 0.014703 -0.127617 0.059857 -0.030893 -0.048214 0.055042 -0.135728 0.047855 0.018059 -0.057941 0.076095 -0.005158 0.078746 -0.009487 -0.094155 0.038078 0.191446 0.104731 -0.061797 0.054561 -0.001471 -0.099876 -0.064738 0.134431 0.079158 -0.020982 -0.107544 -0.066948 0.019820 0.117853 0.016841 0.072806 -0.023043 0.030184 -0.053418 -0.081117 0.031996 0.040066 -0.123042 -0.033171 -0.029532 -0.084470 0.113499 -0.069505 0.079047 0.015985 0.016050 0.000133 0.102063 0.097296 -0.079220 -0.028544 -0.014325 -0.159042 0.091706 -0.002138 0.175210 -0.049536 0.076666 -0.146919 0.097339 0.038982 0.129573 0.041469 0.008249 0.065838 -0.030120 -0.035543 -0.076513 0.097474 0.028979 0.024566 0.073238 0.082349 -0.020297 -0.008543 -0.085035 0.027998 -0.005610 -0.026759 0.052900 -0.103005 0.177107 0.116209 -0.156149 -0.079265 0.059568 0.124264 -0.080888 0.085008 -0.000209 0.043084 0.001182 0.078221 0.131144 -0.025508 0.093422 0.068825 -0.091553 -0.026039 0.051851 0.035812 0.108822 0.040142 -0.055445 -0.013425 -0.014612 -0.100354 -0.001733 -0.045547 0.070988 -0.052561 -0.092128 -0.060727 -0.082948 -0.109622 -0.048695 0.002095 -0.013981 -0.134159 -0.000859 0.034946 0.056036 -0.114272 -0.001043 0.029952 0.085075 0.095085 0.023316 -0.057052 0.022185 0.052766 -0.100683 0.000827 0.165684 -0.039382 -0.048831 -0.000063 -0.012064 0.081109 -0.012473 0.012254 -0.153411 -0.046133 -0.000597 -0.042388 0.009908 -0.116537 -0.027331 0.143084 -0.036905 -0.150089 0.070087 -0.130864 -0.008095 0.109523 -0.149665 -0.042629 0.005391 -0.073803 0.113359 -0.004791 -0.023789 0.020383 -0.070189 -0.006336 -0.026309 0.029434 -0.182877 0.176893 -0.058632 -0.206531 0.045099 -0.073220 -0.082042 -0.047362 0.005999 -0.071310 -0.052597 -0.063006 -0.003861 0.026149 0.029305 0.104318 0.042824 0.095100 -0.107306 -0.000322 -0.062650 0.078756 -0.003422 -0.138929 -0.024402 -0.015118 0.032550 -0.073867 -0.055220 0.025441 -0.113646 0.034944 0.094666 -0.019232 -0.127714 -0.013476 -0.091870 0.049389 0.036182 0.105186 -0.058789 0.089780 -0.066147 -0.029706 -0.061532 0.007126 -0.031638 0.061109 0.009143 0.011988 -0.042322 0.002589 -0.110910 0.094413 -0.053264 -0.095635 0.109078 -0.060175 -0.032263 0.174957 0.038731 -0.014113 -0.056344 0.080697 0.056308 0.068405 0.027461 -0.061106 0.052188 -0.023394 -0.078859 0.036360 0.056744 -0.044090 0.018448 0.025093 -0.093201 0.022460 -0.002073 -0.075954 0.119930 -0.098785 -0.049681 -0.009306 -0.069150 -0.025272 0.122576 0.019013 -0.045761 0.065605 0.082899 -0.036174 -0.019127 -0.001281 0.225791 -0.010989 0.089567 0.116389 -0.109990 -0.016126 0.032881 0.019722 0.107640 -0.046252 -0.013162 0.056467 0.059335 -0.006677 0.071495 0.076991 0.079074 0.113822 0.136284 -0.099054 -0.129655 0.061156 -0.036718 -0.088436 -0.089016 -0.020637 0.036306 -0.104379 -0.022799 -0.043710 0.029679 -0.132341 0.030762 0.048742 0.016069 0.005642 -0.071862 -0.079482 -0.018893 -0.045853 
two10 0.026949 0.030901 -0.060484 -0.081093 0.011852 -0.029631 -0.120319 -0.005559 0.057556 0.009205 -0.024234 0.002440 0.026724 -0.131985 0.027310 -0.047765 -0.002154 0.146533 -0.117397 0.196437 -0.160708 -0.021997 0.077677 0.056320 0.019529 0.105241 -0.108197 -0.030014 0.076577 -0.002374 0.059367 -0.063524 -0.140718 -0.062832 0.092478 -0.030351 0.084728 0.072848 -0.016831 0.022143 0.059074 0.004247 -0.002685 0.006571 0.077716 0.037562 0.118242 0.107346 -0.084715 -0.002572 0.035837 -0.010111 -0.000074 -0.028953 -0.038191 0.040322 -0.030625 0.071002 0.008887 0.017904 0.051796 0.134075 -0.126387 0.037972 -0.053503 -0.113146 0.104685 -0.036022 -0.045041 0.020595 0.013825 -0.063139 -0.012079 0.101059 -0.038552 -0.162229 -0.003069 -0.083528 -0.031189 0.032709 0.011350 0.039369 0.030058 0.101122 0.078887 -0.022710 0.012507 -0.109774 0.023970 -0.044062 -0.035196 -0.028048 0.076937 0.020534 -0.032127 0.026469 -0.053210 -0.098090 0.014703 -0.127617 0.059857 -0.030893 -0.048214 0.055042 -0.135728 0.047855 0.018059 -0.057941 0.076095 -0.005158 0.078746 -0.009487 -0.094155 0.038078 0.191446 0.104731 -0.061797 0.054561 -0.001471 -0.099876 -0.064738 0.134431 0.079158 -0.020982 -0.107544 -0.066948 0.019820 0.117853 0.016841 0.072806 -0.023043 0.030184 -0.053418 -0.081117 0.031996 0.040066 -0.123042 -0.033171 -0.029532 -0.084470 0.113499 -0.069505 0.079047 0.015985 0.016050 0.000133 0.102063 0.097296 -0.079220 -0.028544 -0.014325 -0.159042 0.091706 -0.002138 0.175210 -0.049536 0.076666 -0.146919 0.097339 0.038982 0.129573 0.041469 0.008249 0.065838 -0.030120 -0.035543 -0.076513 0.097474 0.028979 0.024566 0.073238 0.082349 -0.020297 -0.008543 -0.085035 0.027998 -0.005610 -0.026759 0.052900 -0.103005 0.177107 0.116209 -0.156149 -0.079265 0.059568 0.124264 -0.080888 0.085008 -0.000209 0.043084 0.001182 0.078221 0.131144 -0.025508 0.093422 0.068825 -0.091553 -0.026039 0.051851 0.035812 0.108822 0.040142 -0.055445 -0.013425 -0.014612 -0.100354 -0.001733 -0.045547 0.070988 -0.052561 -0.092128 -0.060727 -0.082948 -0.109622 -0.048695 0.002095 -0.013981 -0.134159 -0.000859 0.034946 0.056036 -0.114272 -0.001043 0.029952 0.085075 0.095085 0.023316 -0.057052 0.022185 0.052766 -0.100683 0.000827 0.165684 -0.039382 -0.048831 -0.000063 -0.012064 0.081109 -0.012473 0.012254 -0.153411 -0.046133 -0.000597 -0.042388 0.009908 -0.116537 -0.027331 0.143084 -0.036905 -0.150089 0.070087 -0.130864 -0.008095 0.109523 -0.149665 -0.042629 0.005391 -0.073803 0.113359 -0.004791 -0.023789 0.020383 -0.070189 -0.006336 -0.026309 0.029434 -0.182877 0.176893 -0.058632 -0.206531 0.045099 -0.073220 -0.082042 -0.047362 0.005999 -0.071310 -0.052597 -0.063006 -0.003861 0.026149 0.029305 0.104318 0.042824 0.095100 -0.107306 -0.000322 -0.062650 0.078756 -0.003422 -0.138929 -0.024402 -0.015118 0.032550 -0.073867 -0.055220 0.025441 -0.113646 0.034944 0.094666 -0.019232 -0.127714 -0.013476 -0.091870 0.049389 0.036182 0.105186 -0.058789 0.089780 -0.066147 -0.029706 -0.061532 0.007126 -0.031638 0.061109 0.009143 0.011988 -0.042322 0.002589 -0.110910 0.094413 -0.053264 -0.095635 0.109078 -0.060175 -0.032263 0.174957 0.038731 -0.014113 -0.056344 0.080697 0.056308 0.068405 0.027461 -0.061106 0.052188 -0.023394 -0.078859 0.036360 0.056744 -0.044090 0.018448 0.025093 -0.093201 0.022460 -0.002073 -0.075954 0.119930 -0.098785 -0.049681 -0.009306 -0.069150 -0.025272 0.122576 0.019013 -0.045761 0.065605 0.082899 -0.036174 -0.019127 -0.001281 0.225791 -0.010989 0.089567 0.116389 -0.109990 -0.016126 0.032881 0.019722 0.107640 -0.046252 -0.013162 0.056467 0.059335 -0.006677 0.071495 0.076991 0.079074 0.113822 0.136284 -0.099054 -0.129655 0.061156 -0.036718 -0.088436 -0.089016 -0.020637 0.036306 -0.104379 -0.022799 -0.043710 0.029679 -0.132341 0.030762 0.048742 0.016069 0.005642 -0.071862 -0.079482 -0.018893 -0.045853 
two11 0.026949 0.030901 -0.060484 -0.081093 0.011852 -0.029631 -0.120319 -0.005559 0.057556 0.009205 -0.024234 0.002440 0.026724 -0.131985 0.027310 -0.047765 -0.002154 0.146533 -0.117397 0.196437 -0.160708 -0.021997 0.077677 0.056320 0.019529 0.105241 -0.108197 -0.030014 0.076577 -0.002374 0.059367 -0.063524 -0.140718 -0.062832 0.092478 -0.030351 0.084728 0.072848 -0.016831 0.022143 0.059074 0.004247 -0.002685 0.006571 0.077716 0.037562 0.118242 0.107346 -0.084715 -0.002572 0.035837 -0.010111 -0.000074 -0.028953 -0.038191 0.040322 -0.030625 0.071002 0.008887 0.017904 0.051796 0.134075 -0.126387 0.037972 -0.053503 -0.113146 0.104685 -0.036022 -0.045041 0.020595 0.013825 -0.063139 -0.012079 0.101059 -0.038552 -0.162229 -0.003069 -0.083528 -0.031189 0.032709 0.011350 0.039369 0.030058 0.101122 0.078887 -0.022710 0.012507 -0.109774 0.023970 -0.044062 -0.035196 -0.028048 0.076937 0.020534 -0.032127 0.026469 -0.053210 -0.098090 0.014703 -0.127617 0.059857 -0.030893 -0.048214 0.055042 -0.135728 0.047855 0.018059 -0.057941 0.076095 -0.005158 0.078746 -0.009487 -0.094155 0.038078 0.191446 0.104731 -0.061797 0.054561 -0.001471 -0.099876 -0.064738 0.134431 0.079158 -0.020982 -0.107544 -0.066948 0.019820 0.117853 0.016841 0.072806 -0.023043 0.030184 -0.053418 -0.081117 0.031996 0.040066 -0.123042 -0.033171 -0.029532 -0.084470 0.113499 -0.069505 0.079047 0.015985 0.016050 0.000133 0.102063 0.097296 -0.079220 -0.028544 -0.014325 -0.159042 0.091706 -0.002138 0.175210 -0.049536 0.076666 -0.146919 0.097339 0.038982 0.129573 0.041469 0.008249 0.065838 -0.030120 -0.035543 -0.076513 0.097474 0.028979 0.024566 0.073238 0.082349 -0.020297 -0.008543 -0.085035 0.027998 -0.005610 -0.026759 0.052900 -0.103005 0.177107 0.116209 -0.156149 -0.079265 0.059568 0.124264 -0.080888 0.085008 -0.000209 0.043084 0.001182 0.078221 0.131144 -0.025508 0.093422 0.068825 -0.091553 -0.026039 0.051851 0.035812 0.108822 0.040142 -0.055445 -0.013425 -0.014612 -0.100354 -0.001733 -0.045547 0.070988 -0.052561 -0.092128 -0.060727 -0.082948 -0.109622 -0.048695 0.002095 -0.013981 -0.134159 -0.000859 0.034946 0.056036 -0.114272 -0.001043 0.029952 0.085075 0.095085 0.023316 -0.057052 0.022185 0.052766 -0.100683 0.000827 0.165684 -0.039382 -0.048831 -0.000063 -0.012064 0.081109 -0.012473 0.012254 -0.153411 -0.046133 -0.000597 -0.042388 0.009908 -0.116537 -0.027331 0.143084 -0.036905 -0.150089 0.070087 -0.130864 -0.008095 0.109523 -0.149665 -0.042629 0.005391 -0.073803 0.113359 -0.004791 -0.023789 0.020383 -0.070189 -0.006336 -0.026309 0.029434 -0.182877 0.176893 -0.058632 -0.206531 0.045099 -0.073220 -0.082042 -0.047362 0.005999 -0.071310 -0.052597 -0.063006 -0.003861 0.026149 0.029305 0.104318 0.042824 0.095100 -0.107306 -0.000322 -0.062650 0.078756 -0.003422 -0.138929 -0.024402 -0.015118 0.032550 -0.073867 -0.055220 0.025441 -0.113646 0.034944 0.094666 -0.019232 -0.127714 -0.013476 -0.091870 0.049389 0.036182 0.105186 -0.058789 0.089780 -0.066147 -0.029706 -0.061532 0.007126 -0.031638 0.061109 0.009143 0.011988 -0.042322 0.002589 -0.110910 0.094413 -0.053264 -0.095635 0.109078 -0.060175 -0.032263 0.174957 0.038731 -0.014113 -0.056344 0.080697 0.056308 0.068405 0.027461 -0.061106 0.052188 -0.023394 -0.078859 0.036360 0.056744 -0.044090 0.018448 0.025093 -0.093201 0.022460 -0.002073 -0.075954 0.119930 -0.098785 -0.049681 -0.009306 -0.069150 -0.025272 0.122576 0.019013 -0.045761 0.065605 0.082899 -0.036174 -0.019127 -0.001281 0.225791 -0.010989 0.089567 0.116389 -0.109990 -0.016126 0.032881 0.019722 0.107640 -0.046252 -0.013162 0.056467 0.059335 -0.006677 0.071495 0.076991 0.079074 0.113822 0.136284 -0.099054 -0.129655 0.061156 -0.036718 -0.088436 -0.089016 -0.020637 0.036306 -0.104379 -0.022799 -0.043710 0.029679 -0.132341 0.030762 0.048742 0.016069 0.005642 -0.071862 -0.079482 -0.018893 -0.045853 
two12 0.026949 0.030901 -0.060484 -0.081093 0.011852 -0.029631 -0.120319 -0.005559 0.057556 0.009205 -0.024234 0.002440 0.026724 -0.131985 0.027310 -0.047765 -0.002154 0.146533 -0.117397 0.196437 -0.160708 -0.021997 0.077677 0.056320 0.019529 0.105241 -0.108197 -0.030014 0.076577 -0.002374 0.059367 -0.063524 -0.140718 -0.062832 0.092478 -0.030351 0.084728 0.072848 -0.016831 0.022143 0.059074 0.004247 -0.002685 0.006571 0.077716 0.037562 0.118242 0.107346 -0.084715 -0.002572 0.035837 -0.010111 -0.000074 -0.028953 -0.038191 0.040322 -0.030625 0.071002 0.008887 0.017904 0.051796 0.134075 -0.126387 0.037972 -0.053503 -0.113146 0.104685 -0.036022 -0.045041 0.020595 0.013825 -0.063139 -0.012079 0.101059 -0.038552 -0.162229 -0.003069 -0.083528 -0.031189 0.032709 0.011350 0.039369 0.030058 0.101122 0.078887 -0.022710 0.012507 -0.109774 0.023970 -0.044062 -0.035196 -0.028048 0.076937 0.020534 -0.032127 0.026469 -0.053210 -0.098090 0.014703 -0.127617 0.059857 -0.030893 -0.048214 0.055042 -0.135728 0.047855 0.018059 -0.057941 0.076095 -0.005158 0.078746 -0.009487 -0.094155 0.038078 0.191446 0.104731 -0.061797 0.054561 -0.001471 -0.099876 -0.064738 0.134431 0.079158 -0.020982 -0.107544 -0.066948 0.019820 0.117853 0.016841 0.072806 -0.023043 0.030184 -0.053418 -0.081117 0.031996 0.040066 -0.123042 -0.033171 -0.029532 -0.084470 0.113499 -0.069505 0.079047 0.015985 0.016050 0.000133 0.102063 0.097296 -0.079220 -0.028544 -0.014325 -0.159042 0.091706 -0.002138 0.175210 -0.049536 0.076666 -0.146919 0.097339 0.038982 0.129573 0.041469 0.008249 0.065838 -0.030120 -0.035543 -0.076513 0.097474 0.028979 0.024566 0.073238 0.082349 -0.020297 -0.008543 -0.085035 0.027998 -0.005610 -0.026759 0.052900 -0.103005 0.177107 0.116209 -0.156149 -0.079265 0.059568 0.124264 -0.080888 0.085008 -0.000209 0.043084 0.001182 0.078221 0.131144 -0.025508 0.093422 0.068825 -0.091553 -0.026039 0.051851 0.035812 0.108822 0.040142 -0.055445 -0.013425 -0.014612 -0.100354 -0.001733 -0.045547 0.070988 -0.052561 -0.092128 -0.060727 -0.082948 -0.109622 -0.048695 0.002095 -0.013981 -0.134159 -0.000859 0.034946 0.056036 -0.114272 -0.001043 0.029952 0.085075 0.095085 0.023316 -0.057052 0.022185 0.052766 -0.100683 0.000827 0.165684 -0.039382 -0.048831 -0.000063 -0.012064 0.081109 -0.012473 0.012254 -0.153411 -0.046133 -0.000597 -0.042388 0.009908 -0.116537 -0.027331 0.143084 -0.036905 -0.150089 0.070087 -0.130864 -0.008095 0.109523 -0.149665 -0.042629 0.005391 -0.073803 0.113359 -0.004791 -0.023789 0.020383 -0.070189 -0.006336 -0.026309 0.029434 -0.182877 0.176893 -0.058632 -0.206531 0.045099 -0.073220 -0.082042 -0.047362 0.005999 -0.071310 -0.052597 -0.063006 -0.003861 0.026149 0.029305 0.104318 0.042824 0.095100 -0.107306 -0.000322 -0.062650 0.078756 -0.003422 -0.138929 -0.024402 -0.015118 0.032550 -0.073867 -0.055220 0.025441 -0.113646 0.034944 0.094666 -0.019232 -0.127714 -0.013476 -0.091870 0.049389 0.036182 0.105186 -0.058789 0.089780 -0.066147 -0.029706 -0.061532 0.007126 -0.031638 0.061109 0.009143 0.011988 -0.042322 0.002589 -0.110910 0.094413 -0.053264 -0.095635 0.109078 -0.060175 -0.032263 0.174957 0.038731 -0.014113 -0.056344 0.080697 0.056308 0.068405 0.027461 -0.061106 0.052188 -0.023394 -0.078859 0.036360 0.056744 -0.044090 0.018448 0.025093 -0.093201 0.022460 -0.002073 -0.075954 0.119930 -0.098785 -0.049681 -0.009306 -0.069150 -0.025272 0.122576 0.019013 -0.045761 0.065605 0.082899 -0.036174 -0.019127 -0.001281 0.225791 -0.010989 0.089567 0.116389 -0.109990 -0.016126 0.032881 0.019722 0.107640 -0.046252 -0.013162 0.056467 0.059335 -0.006677 0.071495 0.076991 0.079074 0.113822 0.136284 -0.099054 -0.129655 0.061156 -0.036718 -0.088436 -0.089016 -0.020637 0.036306 -0.104379 -0.022799 -0.043710 0.029679 -0.132341 0.030762 0.048742 0.016069 0.005642 -0.071862 -0.079482 -0.018893 -0.045853 
two13 0.026949 0.030901 -0.060484 -0.081093 0.011852 -0.029631 -0.120319 -0.005559 0.057556 0.009205 -0.024234 0.002440 0.026724 -0.131985 0.027310 -0.047765 -0.002154 0.146533 -0.117397 0.196437 -0.160708 -0.021997 0.077677 0.056320 0.019529 0.105241 -0.108197 -0.030014 0.076577 -0.002374 0.059367 -0.063524 -0.140718 -0.062832 0.092478 -0.030351 0.084728 0.072848 -0.016831 0.022143 0.059074 0.004247 -0.002685 0.006571 0.077716 0.037562 0.118242 0.107346 -0.084715 -0.002572 0.035837 -0.010111 -0.000074 -0.028953 -0.038191 0.040322 -0.030625 0.071002 0.008887 0.017904 0.051796 0.134075 -0.126387 0.037972 -0.053503 -0.113146 0.104685 -0.036022 -0.045041 0.020595 0.013825 -0.063139 -0.012079 0.101059 -0.038552 -0.162229 -0.003069 -0.083528 -0.031189 0.032709 0.011350 0.039369 0.030058 0.101122 0.078887 -0.022710 0.012507 -0.109774 0.023970 -0.044062 -0.035196 -0.028048 0.076937 0.020534 -0.032127 0.026469 -0.053210 -0.098090 0.014703 -0.127617 0.059857 -0.030893 -0.048214 0.055042 -0.135728 0.047855 0.018059 -0.057941 0.076095 -0.005158 0.078746 -0.009487 -0.094155 0.038078 0.191446 0.104731 -0.061797 0.054561 -0.001471 -0.099876 -0.064738 0.134431 0.079158 -0.020982 -0.107544 -0.066948 0.019820 0.117853 0.016841 0.072806 -0.023043 0.030184 -0.053418 -0.081117 0.031996 0.040066 -0.123042 -0.033171 -0.029532 -0.084470 0.113499 -0.069505 0.079047 0.015985 0.016050 0.000133 0.102063 0.097296 -0.079220 -0.028544 -0.014325 -0.159042 0.091706 -0.002138 0.175210 -0.049536 0.076666 -0.146919 0.097339 0.038982 0.129573 0.041469 0.008249 0.065838 -0.030120 -0.035543 -0.076513 0.097474 0.028979 0.024566 0.073238 0.082349 -0.020297 -0.008543 -0.085035 0.027998 -0.005610 -0.026759 0.052900 -0.103005 0.177107 0.116209 -0.156149 -0.079265 0.059568 0.124264 -0.080888 0.085008 -0.000209 0.043084 0.001182 0.078221 0.131144 -0.025508 0.093422 0.068825 -0.091553 -0.026039 0.051851 0.035812 0.108822 0.040142 -0.055445 -0.013425 -0.014612 -0.100354 -0.001733 -0.045547 0.070988 -0.052561 -0.092128 -0.060727 -0.082948 -0.109622 -0.048695 0.002095 -0.013981 -0.134159 -0.000859 0.034946 0.056036 -0.114272 -0.001043 0.029952 0.085075 0.095085 0.023316 -0.057052 0.022185 0.052766 -0.100683 0.000827 0.165684 -0.039382 -0.048831 -0.000063 -0.012064 0.081109 -0.012473 0.012254 -0.153411 -0.046133 -0.000597 -0.042388 0.009908 -0.116537 -0.027331 0.143084 -0.036905 -0.150089 0.070087 -0.130864 -0.008095 0.109523 -0.149665 -0.042629 0.005391 -0.073803 0.113359 -0.004791 -0.023789 0.020383 -0.070189 -0.006336 -0.026309 0.029434 -0.182877 0.176893 -0.058632 -0.206531 0.045099 -0.073220 -0.082042 -0.047362 0.005999 -0.071310 -0.052597 -0.063006 -0.003861 0.026149 0.029305 0.104318 0.042824 0.095100 -0.107306 -0.000322 -0.062650 0.078756 -0.003422 -0.138929 -0.024402 -0.015118 0.032550 -0.073867 -0.055220 0.025441 -0.113646 0.034944 0.094666 -0.019232 -0.127714 -0.013476 -0.091870 0.049389 0.036182 0.105186 -0.058789 0.089780 -0.066147 -0.029706 -0.061532 0.007126 -0.031638 0.061109 0.009143 0.011988 -0.042322 0.002589 -0.110910 0.094413 -0.053264 -0.095635 0.109078 -0.060175 -0.032263 0.174957 0.038731 -0.014113 -0.056344 0.080697 0.056308 0.068405 0.027461 -0.061106 0.052188 -0.023394 -0.078859 0.036360 0.056744 -0.044090 0.018448 0.025093 -0.093201 0.022460 -0.002073 -0.075954 0.119930 -0.098785 -0.049681 -0.009306 -0.069150 -0.025272 0.122576 0.019013 -0.045761 0.065605 0.082899 -0.036174 -0.019127 -0.001281 0.225791 -0.010989 0.089567 0.116389 -0.109990 -0.016126 0.032881 0.019722 0.107640 -0.046252 -0.013162 0.056467 0.059335 -0.006677 0.071495 0.076991 0.079074 0.113822 0.136284 -0.099054 -0.129655 0.061156 -0.036718 -0.088436 -0.089016 -0.020637 0.036306 -0.104379 -0.022799 -0.043710 0.029679 -0.132341 0.030762 0.048742 0.016069 0.005642 -0.071862 -0.079482 -0.018893 -0.045853 
two14 0.026949 0.030901 -0.060484 -0.081093 0.011852 -0.029631 -0.120319 -0.005559 0.057556 0.009205 -0.024234 0.002440 0.026724 -0.131985 0.027310 -0.047765 -0.002154 0.146533 -0.117397 0.196437 -0.160708 -0.021997 0.077677 0.056320 0.019529 0.105241 -0.108197 -0.030014 0.076577 -0.002374 0.059367 -0.063524 -0.140718 -0.062832 0.092478 -0.030351 0.084728 0.072848 -0.016831 0.022143 0.059074 0.004247 -0.002685 0.006571 0.077716 0.037562 0.118242 0.107346 -0.084715 -0.002572 0.035837 -0.010111 -0.000074 -0.028953 -0.038191 0.040322 -0.030625 0.071002 0.008887 0.017904 0.051796 0.134075 -0.126387 0.037972 -0.053503 -0.113146 0.104685 -0.036022 -0.045041 0.020595 0.013825 -0.063139 -0.012079 0.101059 -0.038552 -0.162229 -0.003069 -0.083528 -0.031189 0.032709 0.011350 0.039369 0.030058 0.101122 0.078887 -0.022710 0.012507 -0.109774 0.023970 -0.044062 -0.035196 -0.028048 0.076937 0.020534 -0.032127 0.026469 -0.053210 -0.098090 0.014703 -0.127617 0.059857 -0.030893 -0.048214 0.055042 -0.135728 0.047855 0.018059 -0.057941 0.076095 -0.005158 0.078746 -0.009487 -0.094155 0.038078 0.191446 0.104731 -0.061797 0.054561 -0.001471 -0.099876 -0.064738 0.134431 0.079158 -0.020982 -0.107544 -0.066948 0.019820 0.117853 0.016841 0.072806 -0.023043 0.030184 -0.053418 -0.081117 0.031996 0.040066 -0.123042 -0.033171 -0.029532 -0.084470 0.113499 -0.069505 0.079047 0.015985 0.016050 0.000133 0.102063 0.097296 -0.079220 -0.028544 -0.014325 -0.159042 0.091706 -0.002138 0.175210 -0.049536 0.076666 -0.146919 0.097339 0.038982 0.129573 0.041469 0.008249 0.065838 -0.030120 -0.035543 -0.076513 0.097474 0.028979 0.024566 0.073238 0.082349 -0.020297 -0.008543 -0.085035 0.027998 -0.005610 -0.026759 0.052900 -0.103005 0.177107 0.116209 -0.156149 -0.079265 0.059568 0.124264 -0.080888 0.085008 -0.000209 0.043084 0.001182 0.078221 0.131144 -0.025508 0.093422 0.068825 -0.091553 -0.026039 0.051851 0.035812 0.108822 0.040142 -0.055445 -0.013425 -0.014612 -0.100354 -0.001733 -0.045547 0.070988 -0.052561 -0.092128 -0.060727 -0.082948 -0.109622 -0.048695 0.002095 -0.013981 -0.134159 -0.000859 0.034946 0.056036 -0.114272 -0.001043 0.029952 0.085075 0.095085 0.023316 -0.057052 0.022185 0.052766 -0.100683 0.000827 0.165684 -0.039382 -0.048831 -0.000063 -0.012064 0.081109 -0.012473 0.012254 -0.153411 -0.046133 -0.000597 -0.042388 0.009908 -0.116537 -0.027331 0.143084 -0.036905 -0.150089 0.070087 -0.130864 -0.008095 0.109523 -0.149665 -0.042629 0.005391 -0.073803 0.113359 -0.004791 -0.023789 0.020383 -0.070189 -0.006336 -0.026309 0.029434 -0.182877 0.176893 -0.058632 -0.206531 0.045099 -0.073220 -0.082042 -0.047362 0.005999 -0.071310 -0.052597 -0.063006 -0.003861 0.026149 0.029305 0.104318 0.042824 0.095100 -0.107306 -0.000322 -0.062650 0.078756 -0.003422 -0.138929 -0.024402 -0.015118 0.032550 -0.073867 -0.055220 0.025441 -0.113646 0.034944 0.094666 -0.019232 -0.127714 -0.013476 -0.091870 0.049389 0.036182 0.105186 -0.058789 0.089780 -0.066147 -0.029706 -0.061532 0.007126 -0.031638 0.061109 0.009143 0.011988 -0.042322 0.002589 -0.110910 0.094413 -0.053264 -0.095635 0.109078 -0.060175 -0.032263 0.174957 0.038731 -0.014113 -0.056344 0.080697 0.056308 0.068405 0.027461 -0.061106 0.052188 -0.023394 -0.078859 0.036360 0.056744 -0.044090 0.018448 0.025093 -0.093201 0.022460 -0.002073 -0.075954 0.119930 -0.098785 -0.049681 -0.009306 -0.069150 -0.025272 0.122576 0.019013 -0.045761 0.065605 0.082899 -0.036174 -0.019127 -0.001281 0.225791 -0.010989 0.089567 0.116389 -0.109990 -0.016126 0.032881 0.019722 0.107640 -0.046252 -0.013162 0.056467 0.059335 -0.006677 0.071495 0.076991 0.079074 0.113822 0.136284 -0.099054 -0.129655 0.061156 -0.036718 -0.088436 -0.089016 -0.020637 0.036306 -0.104379 -0.022799 -0.043710 0.029679 -0.132341 0.030762 0.048742 0.016069 0.005642 -0.071862 -0.079482 -0.018893 -0.045853 